digraph Tree {
node [shape=box] ;
0 [label="X[6] <= 2.5\ngini = 0.329\nsamples = 1851\nvalue = [1466, 385]"] ;
1 [label="X[9] <= 44.07\ngini = 0.298\nsamples = 1748\nvalue = [1430, 318]"] ;
0 -> 1 [labeldistance=2.5, labelangle=45, headlabel="True"] ;
2 [label="X[8] <= 2.5\ngini = 0.282\nsamples = 1721\nvalue = [1429, 292]"] ;
1 -> 2 ;
3 [label="gini = 0.0\nsamples = 19\nvalue = [0, 19]"] ;
2 -> 3 ;
4 [label="X[0] <= 4700.0\ngini = 0.269\nsamples = 1702\nvalue = [1429, 273]"] ;
2 -> 4 ;
5 [label="X[4] <= 0.5\ngini = 0.401\nsamples = 36\nvalue = [10, 26]"] ;
4 -> 5 ;
6 [label="gini = 0.0\nsamples = 18\nvalue = [0, 18]"] ;
5 -> 6 ;
7 [label="X[2] <= 62609.5\ngini = 0.494\nsamples = 18\nvalue = [10, 8]"] ;
5 -> 7 ;
8 [label="gini = 0.0\nsamples = 5\nvalue = [0, 5]"] ;
7 -> 8 ;
9 [label="X[4] <= 2.5\ngini = 0.355\nsamples = 13\nvalue = [10, 3]"] ;
7 -> 9 ;
10 [label="gini = 0.0\nsamples = 8\nvalue = [8, 0]"] ;
9 -> 10 ;
11 [label="X[7] <= 180.033\ngini = 0.48\nsamples = 5\nvalue = [2, 3]"] ;
9 -> 11 ;
12 [label="gini = 0.0\nsamples = 2\nvalue = [0, 2]"] ;
11 -> 12 ;
13 [label="X[5] <= 5.25\ngini = 0.444\nsamples = 3\nvalue = [2, 1]"] ;
11 -> 13 ;
14 [label="gini = 0.0\nsamples = 1\nvalue = [0, 1]"] ;
13 -> 14 ;
15 [label="gini = 0.0\nsamples = 2\nvalue = [2, 0]"] ;
13 -> 15 ;
16 [label="X[11] <= 1.5\ngini = 0.253\nsamples = 1666\nvalue = [1419, 247]"] ;
4 -> 16 ;
17 [label="X[9] <= 33.648\ngini = 0.233\nsamples = 1614\nvalue = [1397, 217]"] ;
16 -> 17 ;
18 [label="X[13] <= 0.117\ngini = 0.087\nsamples = 572\nvalue = [546, 26]"] ;
17 -> 18 ;
19 [label="X[7] <= 79.145\ngini = 0.444\nsamples = 3\nvalue = [1, 2]"] ;
18 -> 19 ;
20 [label="gini = 0.0\nsamples = 2\nvalue = [0, 2]"] ;
19 -> 20 ;
21 [label="gini = 0.0\nsamples = 1\nvalue = [1, 0]"] ;
19 -> 21 ;
22 [label="X[2] <= 309558.0\ngini = 0.081\nsamples = 569\nvalue = [545, 24]"] ;
18 -> 22 ;
23 [label="X[9] <= 30.285\ngini = 0.078\nsamples = 568\nvalue = [545, 23]"] ;
22 -> 23 ;
24 [label="X[9] <= 13.552\ngini = 0.036\nsamples = 381\nvalue = [374, 7]"] ;
23 -> 24 ;
25 [label="X[2] <= 55006.0\ngini = 0.444\nsamples = 3\nvalue = [2, 1]"] ;
24 -> 25 ;
26 [label="gini = 0.0\nsamples = 1\nvalue = [0, 1]"] ;
25 -> 26 ;
27 [label="gini = 0.0\nsamples = 2\nvalue = [2, 0]"] ;
25 -> 27 ;
28 [label="X[8] <= 4.5\ngini = 0.031\nsamples = 378\nvalue = [372, 6]"] ;
24 -> 28 ;
29 [label="X[13] <= 2.172\ngini = 0.375\nsamples = 4\nvalue = [3, 1]"] ;
28 -> 29 ;
30 [label="gini = 0.0\nsamples = 3\nvalue = [3, 0]"] ;
29 -> 30 ;
31 [label="gini = 0.0\nsamples = 1\nvalue = [0, 1]"] ;
29 -> 31 ;
32 [label="X[13] <= 2.718\ngini = 0.026\nsamples = 374\nvalue = [369, 5]"] ;
28 -> 32 ;
33 [label="X[2] <= 45635.5\ngini = 0.022\nsamples = 366\nvalue = [362, 4]"] ;
32 -> 33 ;
34 [label="X[2] <= 45585.5\ngini = 0.114\nsamples = 33\nvalue = [31, 2]"] ;
33 -> 34 ;
35 [label="X[11] <= 0.5\ngini = 0.061\nsamples = 32\nvalue = [31, 1]"] ;
34 -> 35 ;
36 [label="gini = 0.0\nsamples = 26\nvalue = [26, 0]"] ;
35 -> 36 ;
37 [label="X[7] <= 121.564\ngini = 0.278\nsamples = 6\nvalue = [5, 1]"] ;
35 -> 37 ;
38 [label="gini = 0.0\nsamples = 5\nvalue = [5, 0]"] ;
37 -> 38 ;
39 [label="gini = 0.0\nsamples = 1\nvalue = [0, 1]"] ;
37 -> 39 ;
40 [label="gini = 0.0\nsamples = 1\nvalue = [0, 1]"] ;
34 -> 40 ;
41 [label="X[7] <= 93.683\ngini = 0.012\nsamples = 333\nvalue = [331, 2]"] ;
33 -> 41 ;
42 [label="X[7] <= 92.576\ngini = 0.08\nsamples = 24\nvalue = [23, 1]"] ;
41 -> 42 ;
43 [label="gini = 0.0\nsamples = 23\nvalue = [23, 0]"] ;
42 -> 43 ;
44 [label="gini = 0.0\nsamples = 1\nvalue = [0, 1]"] ;
42 -> 44 ;
45 [label="X[9] <= 23.52\ngini = 0.006\nsamples = 309\nvalue = [308, 1]"] ;
41 -> 45 ;
46 [label="X[9] <= 23.428\ngini = 0.027\nsamples = 72\nvalue = [71, 1]"] ;
45 -> 46 ;
47 [label="gini = 0.0\nsamples = 71\nvalue = [71, 0]"] ;
46 -> 47 ;
48 [label="gini = 0.0\nsamples = 1\nvalue = [0, 1]"] ;
46 -> 48 ;
49 [label="gini = 0.0\nsamples = 237\nvalue = [237, 0]"] ;
45 -> 49 ;
50 [label="X[13] <= 2.723\ngini = 0.219\nsamples = 8\nvalue = [7, 1]"] ;
32 -> 50 ;
51 [label="gini = 0.0\nsamples = 1\nvalue = [0, 1]"] ;
50 -> 51 ;
52 [label="gini = 0.0\nsamples = 7\nvalue = [7, 0]"] ;
50 -> 52 ;
53 [label="X[0] <= 10350.0\ngini = 0.156\nsamples = 187\nvalue = [171, 16]"] ;
23 -> 53 ;
54 [label="X[1] <= 66951.5\ngini = 0.423\nsamples = 23\nvalue = [16, 7]"] ;
53 -> 54 ;
55 [label="X[8] <= 20.5\ngini = 0.5\nsamples = 14\nvalue = [7, 7]"] ;
54 -> 55 ;
56 [label="X[3] <= 0.5\ngini = 0.42\nsamples = 10\nvalue = [3, 7]"] ;
55 -> 56 ;
57 [label="gini = 0.0\nsamples = 6\nvalue = [0, 6]"] ;
56 -> 57 ;
58 [label="X[2] <= 56759.5\ngini = 0.375\nsamples = 4\nvalue = [3, 1]"] ;
56 -> 58 ;
59 [label="gini = 0.0\nsamples = 1\nvalue = [0, 1]"] ;
58 -> 59 ;
60 [label="gini = 0.0\nsamples = 3\nvalue = [3, 0]"] ;
58 -> 60 ;
61 [label="gini = 0.0\nsamples = 4\nvalue = [4, 0]"] ;
55 -> 61 ;
62 [label="gini = 0.0\nsamples = 9\nvalue = [9, 0]"] ;
54 -> 62 ;
63 [label="X[1] <= 121371.0\ngini = 0.104\nsamples = 164\nvalue = [155, 9]"] ;
53 -> 63 ;
64 [label="X[4] <= 4.5\ngini = 0.052\nsamples = 151\nvalue = [147, 4]"] ;
63 -> 64 ;
65 [label="X[0] <= 27000.0\ngini = 0.04\nsamples = 148\nvalue = [145, 3]"] ;
64 -> 65 ;
66 [label="X[13] <= 1.02\ngini = 0.016\nsamples = 126\nvalue = [125, 1]"] ;
65 -> 66 ;
67 [label="X[13] <= 1.0\ngini = 0.105\nsamples = 18\nvalue = [17, 1]"] ;
66 -> 67 ;
68 [label="gini = 0.0\nsamples = 17\nvalue = [17, 0]"] ;
67 -> 68 ;
69 [label="gini = 0.0\nsamples = 1\nvalue = [0, 1]"] ;
67 -> 69 ;
70 [label="gini = 0.0\nsamples = 108\nvalue = [108, 0]"] ;
66 -> 70 ;
71 [label="X[0] <= 27300.0\ngini = 0.165\nsamples = 22\nvalue = [20, 2]"] ;
65 -> 71 ;
72 [label="gini = 0.0\nsamples = 1\nvalue = [0, 1]"] ;
71 -> 72 ;
73 [label="X[5] <= 3.5\ngini = 0.091\nsamples = 21\nvalue = [20, 1]"] ;
71 -> 73 ;
74 [label="X[8] <= 29.0\ngini = 0.5\nsamples = 2\nvalue = [1, 1]"] ;
73 -> 74 ;
75 [label="gini = 0.0\nsamples = 1\nvalue = [0, 1]"] ;
74 -> 75 ;
76 [label="gini = 0.0\nsamples = 1\nvalue = [1, 0]"] ;
74 -> 76 ;
77 [label="gini = 0.0\nsamples = 19\nvalue = [19, 0]"] ;
73 -> 77 ;
78 [label="X[3] <= 0.5\ngini = 0.444\nsamples = 3\nvalue = [2, 1]"] ;
64 -> 78 ;
79 [label="gini = 0.0\nsamples = 1\nvalue = [0, 1]"] ;
78 -> 79 ;
80 [label="gini = 0.0\nsamples = 2\nvalue = [2, 0]"] ;
78 -> 80 ;
81 [label="X[2] <= 177402.0\ngini = 0.473\nsamples = 13\nvalue = [8, 5]"] ;
63 -> 81 ;
82 [label="gini = 0.0\nsamples = 3\nvalue = [0, 3]"] ;
81 -> 82 ;
83 [label="X[9] <= 30.347\ngini = 0.32\nsamples = 10\nvalue = [8, 2]"] ;
81 -> 83 ;
84 [label="gini = 0.0\nsamples = 1\nvalue = [0, 1]"] ;
83 -> 84 ;
85 [label="X[4] <= 4.5\ngini = 0.198\nsamples = 9\nvalue = [8, 1]"] ;
83 -> 85 ;
86 [label="gini = 0.0\nsamples = 7\nvalue = [7, 0]"] ;
85 -> 86 ;
87 [label="X[0] <= 46200.0\ngini = 0.5\nsamples = 2\nvalue = [1, 1]"] ;
85 -> 87 ;
88 [label="gini = 0.0\nsamples = 1\nvalue = [0, 1]"] ;
87 -> 88 ;
89 [label="gini = 0.0\nsamples = 1\nvalue = [1, 0]"] ;
87 -> 89 ;
90 [label="gini = 0.0\nsamples = 1\nvalue = [0, 1]"] ;
22 -> 90 ;
91 [label="X[9] <= 33.654\ngini = 0.299\nsamples = 1042\nvalue = [851, 191]"] ;
17 -> 91 ;
92 [label="X[6] <= 0.5\ngini = 0.499\nsamples = 265\nvalue = [126, 139]"] ;
91 -> 92 ;
93 [label="X[7] <= 182.233\ngini = 0.496\nsamples = 203\nvalue = [110, 93]"] ;
92 -> 93 ;
94 [label="X[13] <= 0.292\ngini = 0.494\nsamples = 132\nvalue = [59, 73]"] ;
93 -> 94 ;
95 [label="gini = 0.0\nsamples = 5\nvalue = [5, 0]"] ;
94 -> 95 ;
96 [label="X[7] <= 98.25\ngini = 0.489\nsamples = 127\nvalue = [54, 73]"] ;
94 -> 96 ;
97 [label="X[2] <= 71930.0\ngini = 0.375\nsamples = 40\nvalue = [10, 30]"] ;
96 -> 97 ;
98 [label="X[7] <= 61.3\ngini = 0.494\nsamples = 18\nvalue = [8, 10]"] ;
97 -> 98 ;
99 [label="gini = 0.0\nsamples = 5\nvalue = [0, 5]"] ;
98 -> 99 ;
100 [label="X[8] <= 17.5\ngini = 0.473\nsamples = 13\nvalue = [8, 5]"] ;
98 -> 100 ;
101 [label="X[1] <= 21549.0\ngini = 0.219\nsamples = 8\nvalue = [7, 1]"] ;
100 -> 101 ;
102 [label="gini = 0.0\nsamples = 1\nvalue = [0, 1]"] ;
101 -> 102 ;
103 [label="gini = 0.0\nsamples = 7\nvalue = [7, 0]"] ;
101 -> 103 ;
104 [label="X[2] <= 66460.0\ngini = 0.32\nsamples = 5\nvalue = [1, 4]"] ;
100 -> 104 ;
105 [label="gini = 0.0\nsamples = 4\nvalue = [0, 4]"] ;
104 -> 105 ;
106 [label="gini = 0.0\nsamples = 1\nvalue = [1, 0]"] ;
104 -> 106 ;
107 [label="X[5] <= 19.0\ngini = 0.165\nsamples = 22\nvalue = [2, 20]"] ;
97 -> 107 ;
108 [label="X[0] <= 8600.0\ngini = 0.091\nsamples = 21\nvalue = [1, 20]"] ;
107 -> 108 ;
109 [label="X[7] <= 77.767\ngini = 0.32\nsamples = 5\nvalue = [1, 4]"] ;
108 -> 109 ;
110 [label="gini = 0.0\nsamples = 1\nvalue = [1, 0]"] ;
109 -> 110 ;
111 [label="gini = 0.0\nsamples = 4\nvalue = [0, 4]"] ;
109 -> 111 ;
112 [label="gini = 0.0\nsamples = 16\nvalue = [0, 16]"] ;
108 -> 112 ;
113 [label="gini = 0.0\nsamples = 1\nvalue = [1, 0]"] ;
107 -> 113 ;
114 [label="X[7] <= 110.783\ngini = 0.5\nsamples = 87\nvalue = [44, 43]"] ;
96 -> 114 ;
115 [label="X[2] <= 48480.0\ngini = 0.165\nsamples = 11\nvalue = [10, 1]"] ;
114 -> 115 ;
116 [label="X[11] <= 0.5\ngini = 0.5\nsamples = 2\nvalue = [1, 1]"] ;
115 -> 116 ;
117 [label="gini = 0.0\nsamples = 1\nvalue = [0, 1]"] ;
116 -> 117 ;
118 [label="gini = 0.0\nsamples = 1\nvalue = [1, 0]"] ;
116 -> 118 ;
119 [label="gini = 0.0\nsamples = 9\nvalue = [9, 0]"] ;
115 -> 119 ;
120 [label="X[13] <= 0.891\ngini = 0.494\nsamples = 76\nvalue = [34, 42]"] ;
114 -> 120 ;
121 [label="gini = 0.0\nsamples = 5\nvalue = [0, 5]"] ;
120 -> 121 ;
122 [label="X[0] <= 23950.0\ngini = 0.499\nsamples = 71\nvalue = [34, 37]"] ;
120 -> 122 ;
123 [label="X[13] <= 1.939\ngini = 0.492\nsamples = 64\nvalue = [28, 36]"] ;
122 -> 123 ;
124 [label="X[0] <= 12350.0\ngini = 0.494\nsamples = 36\nvalue = [20, 16]"] ;
123 -> 124 ;
125 [label="X[7] <= 115.083\ngini = 0.32\nsamples = 15\nvalue = [12, 3]"] ;
124 -> 125 ;
126 [label="gini = 0.0\nsamples = 1\nvalue = [0, 1]"] ;
125 -> 126 ;
127 [label="X[7] <= 181.587\ngini = 0.245\nsamples = 14\nvalue = [12, 2]"] ;
125 -> 127 ;
128 [label="X[1] <= 40725.5\ngini = 0.142\nsamples = 13\nvalue = [12, 1]"] ;
127 -> 128 ;
129 [label="X[1] <= 26094.5\ngini = 0.5\nsamples = 2\nvalue = [1, 1]"] ;
128 -> 129 ;
130 [label="gini = 0.0\nsamples = 1\nvalue = [1, 0]"] ;
129 -> 130 ;
131 [label="gini = 0.0\nsamples = 1\nvalue = [0, 1]"] ;
129 -> 131 ;
132 [label="gini = 0.0\nsamples = 11\nvalue = [11, 0]"] ;
128 -> 132 ;
133 [label="gini = 0.0\nsamples = 1\nvalue = [0, 1]"] ;
127 -> 133 ;
134 [label="X[1] <= 43399.0\ngini = 0.472\nsamples = 21\nvalue = [8, 13]"] ;
124 -> 134 ;
135 [label="X[13] <= 1.306\ngini = 0.32\nsamples = 5\nvalue = [4, 1]"] ;
134 -> 135 ;
136 [label="gini = 0.0\nsamples = 1\nvalue = [0, 1]"] ;
135 -> 136 ;
137 [label="gini = 0.0\nsamples = 4\nvalue = [4, 0]"] ;
135 -> 137 ;
138 [label="X[2] <= 89080.0\ngini = 0.375\nsamples = 16\nvalue = [4, 12]"] ;
134 -> 138 ;
139 [label="gini = 0.0\nsamples = 6\nvalue = [0, 6]"] ;
138 -> 139 ;
140 [label="X[5] <= 5.25\ngini = 0.48\nsamples = 10\nvalue = [4, 6]"] ;
138 -> 140 ;
141 [label="gini = 0.0\nsamples = 4\nvalue = [0, 4]"] ;
140 -> 141 ;
142 [label="X[0] <= 19550.0\ngini = 0.444\nsamples = 6\nvalue = [4, 2]"] ;
140 -> 142 ;
143 [label="gini = 0.0\nsamples = 4\nvalue = [4, 0]"] ;
142 -> 143 ;
144 [label="gini = 0.0\nsamples = 2\nvalue = [0, 2]"] ;
142 -> 144 ;
145 [label="X[5] <= 6.5\ngini = 0.408\nsamples = 28\nvalue = [8, 20]"] ;
123 -> 145 ;
146 [label="X[13] <= 2.304\ngini = 0.49\nsamples = 14\nvalue = [8, 6]"] ;
145 -> 146 ;
147 [label="X[0] <= 8600.0\ngini = 0.32\nsamples = 5\nvalue = [1, 4]"] ;
146 -> 147 ;
148 [label="gini = 0.0\nsamples = 1\nvalue = [1, 0]"] ;
147 -> 148 ;
149 [label="gini = 0.0\nsamples = 4\nvalue = [0, 4]"] ;
147 -> 149 ;
150 [label="X[1] <= 24099.0\ngini = 0.346\nsamples = 9\nvalue = [7, 2]"] ;
146 -> 150 ;
151 [label="gini = 0.0\nsamples = 1\nvalue = [0, 1]"] ;
150 -> 151 ;
152 [label="X[5] <= 0.75\ngini = 0.219\nsamples = 8\nvalue = [7, 1]"] ;
150 -> 152 ;
153 [label="X[13] <= 2.462\ngini = 0.5\nsamples = 2\nvalue = [1, 1]"] ;
152 -> 153 ;
154 [label="gini = 0.0\nsamples = 1\nvalue = [1, 0]"] ;
153 -> 154 ;
155 [label="gini = 0.0\nsamples = 1\nvalue = [0, 1]"] ;
153 -> 155 ;
156 [label="gini = 0.0\nsamples = 6\nvalue = [6, 0]"] ;
152 -> 156 ;
157 [label="gini = 0.0\nsamples = 14\nvalue = [0, 14]"] ;
145 -> 157 ;
158 [label="X[0] <= 40100.0\ngini = 0.245\nsamples = 7\nvalue = [6, 1]"] ;
122 -> 158 ;
159 [label="gini = 0.0\nsamples = 6\nvalue = [6, 0]"] ;
158 -> 159 ;
160 [label="gini = 0.0\nsamples = 1\nvalue = [0, 1]"] ;
158 -> 160 ;
161 [label="X[5] <= 3.5\ngini = 0.405\nsamples = 71\nvalue = [51, 20]"] ;
93 -> 161 ;
162 [label="X[10] <= 0.5\ngini = 0.465\nsamples = 19\nvalue = [7, 12]"] ;
161 -> 162 ;
163 [label="X[0] <= 15600.0\ngini = 0.5\nsamples = 14\nvalue = [7, 7]"] ;
162 -> 163 ;
164 [label="X[5] <= 1.65\ngini = 0.278\nsamples = 6\nvalue = [5, 1]"] ;
163 -> 164 ;
165 [label="gini = 0.0\nsamples = 5\nvalue = [5, 0]"] ;
164 -> 165 ;
166 [label="gini = 0.0\nsamples = 1\nvalue = [0, 1]"] ;
164 -> 166 ;
167 [label="X[1] <= 118059.5\ngini = 0.375\nsamples = 8\nvalue = [2, 6]"] ;
163 -> 167 ;
168 [label="gini = 0.0\nsamples = 6\nvalue = [0, 6]"] ;
167 -> 168 ;
169 [label="gini = 0.0\nsamples = 2\nvalue = [2, 0]"] ;
167 -> 169 ;
170 [label="gini = 0.0\nsamples = 5\nvalue = [0, 5]"] ;
162 -> 170 ;
171 [label="X[0] <= 36100.0\ngini = 0.26\nsamples = 52\nvalue = [44, 8]"] ;
161 -> 171 ;
172 [label="X[13] <= 2.065\ngini = 0.159\nsamples = 46\nvalue = [42, 4]"] ;
171 -> 172 ;
173 [label="X[8] <= 14.5\ngini = 0.056\nsamples = 35\nvalue = [34, 1]"] ;
172 -> 173 ;
174 [label="X[2] <= 85855.0\ngini = 0.375\nsamples = 4\nvalue = [3, 1]"] ;
173 -> 174 ;
175 [label="gini = 0.0\nsamples = 3\nvalue = [3, 0]"] ;
174 -> 175 ;
176 [label="gini = 0.0\nsamples = 1\nvalue = [0, 1]"] ;
174 -> 176 ;
177 [label="gini = 0.0\nsamples = 31\nvalue = [31, 0]"] ;
173 -> 177 ;
178 [label="X[1] <= 82399.0\ngini = 0.397\nsamples = 11\nvalue = [8, 3]"] ;
172 -> 178 ;
179 [label="gini = 0.0\nsamples = 8\nvalue = [8, 0]"] ;
178 -> 179 ;
180 [label="gini = 0.0\nsamples = 3\nvalue = [0, 3]"] ;
178 -> 180 ;
181 [label="X[0] <= 44950.0\ngini = 0.444\nsamples = 6\nvalue = [2, 4]"] ;
171 -> 181 ;
182 [label="gini = 0.0\nsamples = 4\nvalue = [0, 4]"] ;
181 -> 182 ;
183 [label="gini = 0.0\nsamples = 2\nvalue = [2, 0]"] ;
181 -> 183 ;
184 [label="X[5] <= 8.75\ngini = 0.383\nsamples = 62\nvalue = [16, 46]"] ;
92 -> 184 ;
185 [label="X[7] <= 111.75\ngini = 0.251\nsamples = 34\nvalue = [5, 29]"] ;
184 -> 185 ;
186 [label="X[7] <= 93.733\ngini = 0.426\nsamples = 13\nvalue = [4, 9]"] ;
185 -> 186 ;
187 [label="gini = 0.0\nsamples = 7\nvalue = [0, 7]"] ;
186 -> 187 ;
188 [label="X[4] <= 0.5\ngini = 0.444\nsamples = 6\nvalue = [4, 2]"] ;
186 -> 188 ;
189 [label="gini = 0.0\nsamples = 2\nvalue = [0, 2]"] ;
188 -> 189 ;
190 [label="gini = 0.0\nsamples = 4\nvalue = [4, 0]"] ;
188 -> 190 ;
191 [label="X[12] <= 3.5\ngini = 0.091\nsamples = 21\nvalue = [1, 20]"] ;
185 -> 191 ;
192 [label="gini = 0.0\nsamples = 19\nvalue = [0, 19]"] ;
191 -> 192 ;
193 [label="X[0] <= 14000.0\ngini = 0.5\nsamples = 2\nvalue = [1, 1]"] ;
191 -> 193 ;
194 [label="gini = 0.0\nsamples = 1\nvalue = [1, 0]"] ;
193 -> 194 ;
195 [label="gini = 0.0\nsamples = 1\nvalue = [0, 1]"] ;
193 -> 195 ;
196 [label="X[2] <= 101443.188\ngini = 0.477\nsamples = 28\nvalue = [11, 17]"] ;
184 -> 196 ;
197 [label="X[13] <= 1.555\ngini = 0.459\nsamples = 14\nvalue = [9, 5]"] ;
196 -> 197 ;
198 [label="gini = 0.0\nsamples = 6\nvalue = [6, 0]"] ;
197 -> 198 ;
199 [label="X[7] <= 241.95\ngini = 0.469\nsamples = 8\nvalue = [3, 5]"] ;
197 -> 199 ;
200 [label="X[13] <= 2.422\ngini = 0.278\nsamples = 6\nvalue = [1, 5]"] ;
199 -> 200 ;
201 [label="gini = 0.0\nsamples = 5\nvalue = [0, 5]"] ;
200 -> 201 ;
202 [label="gini = 0.0\nsamples = 1\nvalue = [1, 0]"] ;
200 -> 202 ;
203 [label="gini = 0.0\nsamples = 2\nvalue = [2, 0]"] ;
199 -> 203 ;
204 [label="X[13] <= 0.509\ngini = 0.245\nsamples = 14\nvalue = [2, 12]"] ;
196 -> 204 ;
205 [label="gini = 0.0\nsamples = 1\nvalue = [1, 0]"] ;
204 -> 205 ;
206 [label="X[13] <= 2.211\ngini = 0.142\nsamples = 13\nvalue = [1, 12]"] ;
204 -> 206 ;
207 [label="gini = 0.0\nsamples = 11\nvalue = [0, 11]"] ;
206 -> 207 ;
208 [label="X[7] <= 171.95\ngini = 0.5\nsamples = 2\nvalue = [1, 1]"] ;
206 -> 208 ;
209 [label="gini = 0.0\nsamples = 1\nvalue = [0, 1]"] ;
208 -> 209 ;
210 [label="gini = 0.0\nsamples = 1\nvalue = [1, 0]"] ;
208 -> 210 ;
211 [label="X[9] <= 43.035\ngini = 0.125\nsamples = 777\nvalue = [725, 52]"] ;
91 -> 211 ;
212 [label="X[7] <= 31.213\ngini = 0.111\nsamples = 746\nvalue = [702, 44]"] ;
211 -> 212 ;
213 [label="gini = 0.0\nsamples = 1\nvalue = [0, 1]"] ;
212 -> 213 ;
214 [label="X[8] <= 63.5\ngini = 0.109\nsamples = 745\nvalue = [702, 43]"] ;
212 -> 214 ;
215 [label="X[13] <= 1.396\ngini = 0.107\nsamples = 744\nvalue = [702, 42]"] ;
214 -> 215 ;
216 [label="X[2] <= 47216.5\ngini = 0.022\nsamples = 275\nvalue = [272, 3]"] ;
215 -> 216 ;
217 [label="X[13] <= 0.513\ngini = 0.231\nsamples = 15\nvalue = [13, 2]"] ;
216 -> 217 ;
218 [label="gini = 0.0\nsamples = 1\nvalue = [0, 1]"] ;
217 -> 218 ;
219 [label="X[2] <= 46077.5\ngini = 0.133\nsamples = 14\nvalue = [13, 1]"] ;
217 -> 219 ;
220 [label="gini = 0.0\nsamples = 13\nvalue = [13, 0]"] ;
219 -> 220 ;
221 [label="gini = 0.0\nsamples = 1\nvalue = [0, 1]"] ;
219 -> 221 ;
222 [label="X[9] <= 42.758\ngini = 0.008\nsamples = 260\nvalue = [259, 1]"] ;
216 -> 222 ;
223 [label="gini = 0.0\nsamples = 257\nvalue = [257, 0]"] ;
222 -> 223 ;
224 [label="X[7] <= 142.778\ngini = 0.444\nsamples = 3\nvalue = [2, 1]"] ;
222 -> 224 ;
225 [label="gini = 0.0\nsamples = 1\nvalue = [0, 1]"] ;
224 -> 225 ;
226 [label="gini = 0.0\nsamples = 2\nvalue = [2, 0]"] ;
224 -> 226 ;
227 [label="X[13] <= 1.397\ngini = 0.152\nsamples = 469\nvalue = [430, 39]"] ;
215 -> 227 ;
228 [label="gini = 0.0\nsamples = 1\nvalue = [0, 1]"] ;
227 -> 228 ;
229 [label="X[0] <= 53400.0\ngini = 0.149\nsamples = 468\nvalue = [430, 38]"] ;
227 -> 229 ;
230 [label="X[7] <= 221.201\ngini = 0.141\nsamples = 460\nvalue = [425, 35]"] ;
229 -> 230 ;
231 [label="X[7] <= 220.46\ngini = 0.177\nsamples = 327\nvalue = [295, 32]"] ;
230 -> 231 ;
232 [label="X[1] <= 38332.0\ngini = 0.172\nsamples = 326\nvalue = [295, 31]"] ;
231 -> 232 ;
233 [label="X[11] <= 0.5\ngini = 0.384\nsamples = 27\nvalue = [20, 7]"] ;
232 -> 233 ;
234 [label="X[0] <= 8800.0\ngini = 0.278\nsamples = 24\nvalue = [20, 4]"] ;
233 -> 234 ;
235 [label="gini = 0.0\nsamples = 2\nvalue = [0, 2]"] ;
234 -> 235 ;
236 [label="X[4] <= 0.5\ngini = 0.165\nsamples = 22\nvalue = [20, 2]"] ;
234 -> 236 ;
237 [label="gini = 0.0\nsamples = 16\nvalue = [16, 0]"] ;
236 -> 237 ;
238 [label="X[7] <= 119.547\ngini = 0.444\nsamples = 6\nvalue = [4, 2]"] ;
236 -> 238 ;
239 [label="gini = 0.0\nsamples = 4\nvalue = [4, 0]"] ;
238 -> 239 ;
240 [label="gini = 0.0\nsamples = 2\nvalue = [0, 2]"] ;
238 -> 240 ;
241 [label="gini = 0.0\nsamples = 3\nvalue = [0, 3]"] ;
233 -> 241 ;
242 [label="X[0] <= 23850.0\ngini = 0.148\nsamples = 299\nvalue = [275, 24]"] ;
232 -> 242 ;
243 [label="X[2] <= 212442.5\ngini = 0.192\nsamples = 223\nvalue = [199, 24]"] ;
242 -> 243 ;
244 [label="X[12] <= 3.5\ngini = 0.186\nsamples = 222\nvalue = [199, 23]"] ;
243 -> 244 ;
245 [label="X[0] <= 23750.0\ngini = 0.159\nsamples = 206\nvalue = [188, 18]"] ;
244 -> 245 ;
246 [label="X[1] <= 114539.5\ngini = 0.152\nsamples = 205\nvalue = [188, 17]"] ;
245 -> 246 ;
247 [label="X[12] <= 0.5\ngini = 0.139\nsamples = 199\nvalue = [184, 15]"] ;
246 -> 247 ;
248 [label="X[5] <= 2.5\ngini = 0.211\nsamples = 100\nvalue = [88, 12]"] ;
247 -> 248 ;
249 [label="gini = 0.0\nsamples = 30\nvalue = [30, 0]"] ;
248 -> 249 ;
250 [label="X[8] <= 21.581\ngini = 0.284\nsamples = 70\nvalue = [58, 12]"] ;
248 -> 250 ;
251 [label="X[8] <= 17.5\ngini = 0.408\nsamples = 35\nvalue = [25, 10]"] ;
250 -> 251 ;
252 [label="X[8] <= 10.5\ngini = 0.219\nsamples = 24\nvalue = [21, 3]"] ;
251 -> 252 ;
253 [label="X[13] <= 2.525\ngini = 0.444\nsamples = 3\nvalue = [1, 2]"] ;
252 -> 253 ;
254 [label="gini = 0.0\nsamples = 2\nvalue = [0, 2]"] ;
253 -> 254 ;
255 [label="gini = 0.0\nsamples = 1\nvalue = [1, 0]"] ;
253 -> 255 ;
256 [label="X[6] <= 1.5\ngini = 0.091\nsamples = 21\nvalue = [20, 1]"] ;
252 -> 256 ;
257 [label="gini = 0.0\nsamples = 20\nvalue = [20, 0]"] ;
256 -> 257 ;
258 [label="gini = 0.0\nsamples = 1\nvalue = [0, 1]"] ;
256 -> 258 ;
259 [label="X[1] <= 78449.75\ngini = 0.463\nsamples = 11\nvalue = [4, 7]"] ;
251 -> 259 ;
260 [label="X[2] <= 58037.0\ngini = 0.219\nsamples = 8\nvalue = [1, 7]"] ;
259 -> 260 ;
261 [label="gini = 0.0\nsamples = 1\nvalue = [1, 0]"] ;
260 -> 261 ;
262 [label="gini = 0.0\nsamples = 7\nvalue = [0, 7]"] ;
260 -> 262 ;
263 [label="gini = 0.0\nsamples = 3\nvalue = [3, 0]"] ;
259 -> 263 ;
264 [label="X[7] <= 84.459\ngini = 0.108\nsamples = 35\nvalue = [33, 2]"] ;
250 -> 264 ;
265 [label="gini = 0.0\nsamples = 1\nvalue = [0, 1]"] ;
264 -> 265 ;
266 [label="X[7] <= 101.382\ngini = 0.057\nsamples = 34\nvalue = [33, 1]"] ;
264 -> 266 ;
267 [label="X[1] <= 70432.0\ngini = 0.32\nsamples = 5\nvalue = [4, 1]"] ;
266 -> 267 ;
268 [label="gini = 0.0\nsamples = 1\nvalue = [0, 1]"] ;
267 -> 268 ;
269 [label="gini = 0.0\nsamples = 4\nvalue = [4, 0]"] ;
267 -> 269 ;
270 [label="gini = 0.0\nsamples = 29\nvalue = [29, 0]"] ;
266 -> 270 ;
271 [label="X[0] <= 9600.0\ngini = 0.059\nsamples = 99\nvalue = [96, 3]"] ;
247 -> 271 ;
272 [label="X[12] <= 2.5\ngini = 0.245\nsamples = 14\nvalue = [12, 2]"] ;
271 -> 272 ;
273 [label="gini = 0.0\nsamples = 11\nvalue = [11, 0]"] ;
272 -> 273 ;
274 [label="X[4] <= 0.5\ngini = 0.444\nsamples = 3\nvalue = [1, 2]"] ;
272 -> 274 ;
275 [label="gini = 0.0\nsamples = 1\nvalue = [1, 0]"] ;
274 -> 275 ;
276 [label="gini = 0.0\nsamples = 2\nvalue = [0, 2]"] ;
274 -> 276 ;
277 [label="X[7] <= 72.749\ngini = 0.023\nsamples = 85\nvalue = [84, 1]"] ;
271 -> 277 ;
278 [label="X[1] <= 50999.5\ngini = 0.278\nsamples = 6\nvalue = [5, 1]"] ;
277 -> 278 ;
279 [label="gini = 0.0\nsamples = 1\nvalue = [0, 1]"] ;
278 -> 279 ;
280 [label="gini = 0.0\nsamples = 5\nvalue = [5, 0]"] ;
278 -> 280 ;
281 [label="gini = 0.0\nsamples = 79\nvalue = [79, 0]"] ;
277 -> 281 ;
282 [label="X[3] <= 0.5\ngini = 0.444\nsamples = 6\nvalue = [4, 2]"] ;
246 -> 282 ;
283 [label="gini = 0.0\nsamples = 4\nvalue = [4, 0]"] ;
282 -> 283 ;
284 [label="gini = 0.0\nsamples = 2\nvalue = [0, 2]"] ;
282 -> 284 ;
285 [label="gini = 0.0\nsamples = 1\nvalue = [0, 1]"] ;
245 -> 285 ;
286 [label="X[6] <= 0.5\ngini = 0.43\nsamples = 16\nvalue = [11, 5]"] ;
244 -> 286 ;
287 [label="X[5] <= 16.0\ngini = 0.165\nsamples = 11\nvalue = [10, 1]"] ;
286 -> 287 ;
288 [label="gini = 0.0\nsamples = 10\nvalue = [10, 0]"] ;
287 -> 288 ;
289 [label="gini = 0.0\nsamples = 1\nvalue = [0, 1]"] ;
287 -> 289 ;
290 [label="X[1] <= 131546.0\ngini = 0.32\nsamples = 5\nvalue = [1, 4]"] ;
286 -> 290 ;
291 [label="gini = 0.0\nsamples = 4\nvalue = [0, 4]"] ;
290 -> 291 ;
292 [label="gini = 0.0\nsamples = 1\nvalue = [1, 0]"] ;
290 -> 292 ;
293 [label="gini = 0.0\nsamples = 1\nvalue = [0, 1]"] ;
243 -> 293 ;
294 [label="gini = 0.0\nsamples = 76\nvalue = [76, 0]"] ;
242 -> 294 ;
295 [label="gini = 0.0\nsamples = 1\nvalue = [0, 1]"] ;
231 -> 295 ;
296 [label="X[12] <= 0.5\ngini = 0.044\nsamples = 133\nvalue = [130, 3]"] ;
230 -> 296 ;
297 [label="X[8] <= 28.5\ngini = 0.109\nsamples = 52\nvalue = [49, 3]"] ;
296 -> 297 ;
298 [label="gini = 0.0\nsamples = 36\nvalue = [36, 0]"] ;
297 -> 298 ;
299 [label="X[8] <= 32.0\ngini = 0.305\nsamples = 16\nvalue = [13, 3]"] ;
297 -> 299 ;
300 [label="gini = 0.0\nsamples = 1\nvalue = [0, 1]"] ;
299 -> 300 ;
301 [label="X[5] <= 20.5\ngini = 0.231\nsamples = 15\nvalue = [13, 2]"] ;
299 -> 301 ;
302 [label="X[9] <= 36.024\ngini = 0.133\nsamples = 14\nvalue = [13, 1]"] ;
301 -> 302 ;
303 [label="X[5] <= 12.0\ngini = 0.5\nsamples = 2\nvalue = [1, 1]"] ;
302 -> 303 ;
304 [label="gini = 0.0\nsamples = 1\nvalue = [0, 1]"] ;
303 -> 304 ;
305 [label="gini = 0.0\nsamples = 1\nvalue = [1, 0]"] ;
303 -> 305 ;
306 [label="gini = 0.0\nsamples = 12\nvalue = [12, 0]"] ;
302 -> 306 ;
307 [label="gini = 0.0\nsamples = 1\nvalue = [0, 1]"] ;
301 -> 307 ;
308 [label="gini = 0.0\nsamples = 81\nvalue = [81, 0]"] ;
296 -> 308 ;
309 [label="X[1] <= 76866.5\ngini = 0.469\nsamples = 8\nvalue = [5, 3]"] ;
229 -> 309 ;
310 [label="gini = 0.0\nsamples = 5\nvalue = [5, 0]"] ;
309 -> 310 ;
311 [label="gini = 0.0\nsamples = 3\nvalue = [0, 3]"] ;
309 -> 311 ;
312 [label="gini = 0.0\nsamples = 1\nvalue = [0, 1]"] ;
214 -> 312 ;
313 [label="X[1] <= 46556.0\ngini = 0.383\nsamples = 31\nvalue = [23, 8]"] ;
211 -> 313 ;
314 [label="gini = 0.0\nsamples = 2\nvalue = [0, 2]"] ;
313 -> 314 ;
315 [label="X[5] <= 14.5\ngini = 0.328\nsamples = 29\nvalue = [23, 6]"] ;
313 -> 315 ;
316 [label="X[2] <= 491179.0\ngini = 0.252\nsamples = 27\nvalue = [23, 4]"] ;
315 -> 316 ;
317 [label="X[7] <= 157.277\ngini = 0.204\nsamples = 26\nvalue = [23, 3]"] ;
316 -> 317 ;
318 [label="X[9] <= 43.69\ngini = 0.444\nsamples = 9\nvalue = [6, 3]"] ;
317 -> 318 ;
319 [label="X[8] <= 22.0\ngini = 0.278\nsamples = 6\nvalue = [5, 1]"] ;
318 -> 319 ;
320 [label="gini = 0.0\nsamples = 5\nvalue = [5, 0]"] ;
319 -> 320 ;
321 [label="gini = 0.0\nsamples = 1\nvalue = [0, 1]"] ;
319 -> 321 ;
322 [label="X[2] <= 93823.0\ngini = 0.444\nsamples = 3\nvalue = [1, 2]"] ;
318 -> 322 ;
323 [label="gini = 0.0\nsamples = 1\nvalue = [1, 0]"] ;
322 -> 323 ;
324 [label="gini = 0.0\nsamples = 2\nvalue = [0, 2]"] ;
322 -> 324 ;
325 [label="gini = 0.0\nsamples = 17\nvalue = [17, 0]"] ;
317 -> 325 ;
326 [label="gini = 0.0\nsamples = 1\nvalue = [0, 1]"] ;
316 -> 326 ;
327 [label="gini = 0.0\nsamples = 2\nvalue = [0, 2]"] ;
315 -> 327 ;
328 [label="X[9] <= 33.269\ngini = 0.488\nsamples = 52\nvalue = [22, 30]"] ;
16 -> 328 ;
329 [label="X[5] <= 12.0\ngini = 0.266\nsamples = 19\nvalue = [16, 3]"] ;
328 -> 329 ;
330 [label="gini = 0.0\nsamples = 15\nvalue = [15, 0]"] ;
329 -> 330 ;
331 [label="X[13] <= 1.242\ngini = 0.375\nsamples = 4\nvalue = [1, 3]"] ;
329 -> 331 ;
332 [label="gini = 0.0\nsamples = 1\nvalue = [1, 0]"] ;
331 -> 332 ;
333 [label="gini = 0.0\nsamples = 3\nvalue = [0, 3]"] ;
331 -> 333 ;
334 [label="X[7] <= 186.85\ngini = 0.298\nsamples = 33\nvalue = [6, 27]"] ;
328 -> 334 ;
335 [label="X[5] <= 0.3\ngini = 0.071\nsamples = 27\nvalue = [1, 26]"] ;
334 -> 335 ;
336 [label="X[6] <= 1.5\ngini = 0.444\nsamples = 3\nvalue = [1, 2]"] ;
335 -> 336 ;
337 [label="gini = 0.0\nsamples = 2\nvalue = [0, 2]"] ;
336 -> 337 ;
338 [label="gini = 0.0\nsamples = 1\nvalue = [1, 0]"] ;
336 -> 338 ;
339 [label="gini = 0.0\nsamples = 24\nvalue = [0, 24]"] ;
335 -> 339 ;
340 [label="X[11] <= 5.0\ngini = 0.278\nsamples = 6\nvalue = [5, 1]"] ;
334 -> 340 ;
341 [label="gini = 0.0\nsamples = 5\nvalue = [5, 0]"] ;
340 -> 341 ;
342 [label="gini = 0.0\nsamples = 1\nvalue = [0, 1]"] ;
340 -> 342 ;
343 [label="X[7] <= 301.079\ngini = 0.071\nsamples = 27\nvalue = [1, 26]"] ;
1 -> 343 ;
344 [label="gini = 0.0\nsamples = 26\nvalue = [0, 26]"] ;
343 -> 344 ;
345 [label="gini = 0.0\nsamples = 1\nvalue = [1, 0]"] ;
343 -> 345 ;
346 [label="X[9] <= 33.687\ngini = 0.455\nsamples = 103\nvalue = [36, 67]"] ;
0 -> 346 [labeldistance=2.5, labelangle=-45, headlabel="False"] ;
347 [label="X[9] <= 32.562\ngini = 0.358\nsamples = 77\nvalue = [18, 59]"] ;
346 -> 347 ;
348 [label="X[8] <= 27.5\ngini = 0.375\nsamples = 16\nvalue = [12, 4]"] ;
347 -> 348 ;
349 [label="X[8] <= 13.5\ngini = 0.32\nsamples = 5\nvalue = [1, 4]"] ;
348 -> 349 ;
350 [label="gini = 0.0\nsamples = 1\nvalue = [1, 0]"] ;
349 -> 350 ;
351 [label="gini = 0.0\nsamples = 4\nvalue = [0, 4]"] ;
349 -> 351 ;
352 [label="gini = 0.0\nsamples = 11\nvalue = [11, 0]"] ;
348 -> 352 ;
353 [label="X[1] <= 198399.0\ngini = 0.177\nsamples = 61\nvalue = [6, 55]"] ;
347 -> 353 ;
354 [label="X[5] <= 0.45\ngini = 0.153\nsamples = 60\nvalue = [5, 55]"] ;
353 -> 354 ;
355 [label="X[5] <= 0.2\ngini = 0.5\nsamples = 2\nvalue = [1, 1]"] ;
354 -> 355 ;
356 [label="gini = 0.0\nsamples = 1\nvalue = [0, 1]"] ;
355 -> 356 ;
357 [label="gini = 0.0\nsamples = 1\nvalue = [1, 0]"] ;
355 -> 357 ;
358 [label="X[0] <= 7350.0\ngini = 0.128\nsamples = 58\nvalue = [4, 54]"] ;
354 -> 358 ;
359 [label="X[0] <= 6150.0\ngini = 0.375\nsamples = 8\nvalue = [2, 6]"] ;
358 -> 359 ;
360 [label="gini = 0.0\nsamples = 6\nvalue = [0, 6]"] ;
359 -> 360 ;
361 [label="gini = 0.0\nsamples = 2\nvalue = [2, 0]"] ;
359 -> 361 ;
362 [label="X[2] <= 105095.0\ngini = 0.077\nsamples = 50\nvalue = [2, 48]"] ;
358 -> 362 ;
363 [label="gini = 0.0\nsamples = 34\nvalue = [0, 34]"] ;
362 -> 363 ;
364 [label="X[2] <= 106840.5\ngini = 0.219\nsamples = 16\nvalue = [2, 14]"] ;
362 -> 364 ;
365 [label="gini = 0.0\nsamples = 1\nvalue = [1, 0]"] ;
364 -> 365 ;
366 [label="X[0] <= 12850.0\ngini = 0.124\nsamples = 15\nvalue = [1, 14]"] ;
364 -> 366 ;
367 [label="gini = 0.0\nsamples = 1\nvalue = [1, 0]"] ;
366 -> 367 ;
368 [label="gini = 0.0\nsamples = 14\nvalue = [0, 14]"] ;
366 -> 368 ;
369 [label="gini = 0.0\nsamples = 1\nvalue = [1, 0]"] ;
353 -> 369 ;
370 [label="X[6] <= 5.5\ngini = 0.426\nsamples = 26\nvalue = [18, 8]"] ;
346 -> 370 ;
371 [label="X[9] <= 41.514\ngini = 0.298\nsamples = 22\nvalue = [18, 4]"] ;
370 -> 371 ;
372 [label="X[1] <= 48313.5\ngini = 0.18\nsamples = 20\nvalue = [18, 2]"] ;
371 -> 372 ;
373 [label="gini = 0.0\nsamples = 1\nvalue = [0, 1]"] ;
372 -> 373 ;
374 [label="X[7] <= 98.118\ngini = 0.1\nsamples = 19\nvalue = [18, 1]"] ;
372 -> 374 ;
375 [label="X[12] <= 1.5\ngini = 0.5\nsamples = 2\nvalue = [1, 1]"] ;
374 -> 375 ;
376 [label="gini = 0.0\nsamples = 1\nvalue = [1, 0]"] ;
375 -> 376 ;
377 [label="gini = 0.0\nsamples = 1\nvalue = [0, 1]"] ;
375 -> 377 ;
378 [label="gini = 0.0\nsamples = 17\nvalue = [17, 0]"] ;
374 -> 378 ;
379 [label="gini = 0.0\nsamples = 2\nvalue = [0, 2]"] ;
371 -> 379 ;
380 [label="gini = 0.0\nsamples = 4\nvalue = [0, 4]"] ;
370 -> 380 ;
}